solver_type L2R_L2LOSS_SVC_DUAL
nr_class 2
label 1 0
nr_feature 394
bias 1
w
-0.48641245714028 
0 
0.2831581756423091 
0 
-0.2977849490560652 
-0.2228481710585596 
0 
0.2049947594428301 
-0.392625423032133 
-0.8912834176800971 
0 
-0.3438522281781823 
0.03100320858573028 
0.1951989966825609 
-0.1639426938058084 
0.08226770812826653 
5.204170427930421e-18 
0.1434518158360873 
-0.2815844483791664 
0 
-0.2688468265070501 
-0.08629067435932718 
-0.1684946943194697 
0.1951989966825609 
-0.2160068198891461 
-0.0673114015403649 
-0.08749699446451985 
-0.3678751227384936 
0.3118453553671315 
-0.06543259104611165 
-0.4779142341633793 
-0.3333580236800042 
0 
0.3336248354201851 
0 
-0.189292625546998 
0 
0.315775934972463 
-0.8897855999489638 
-0.1880817831626897 
0.8440537559883267 
-0.1933012219612567 
-0.05667867914802868 
0.07028213092335173 
0 
0 
0 
0 
0.2613434510361692 
0 
0.8402427555301664 
0.1951989966825609 
-0.618219411645099 
0.1726332882723871 
0 
0 
0.4114340544512044 
-0.03325417360345526 
0 
-0.3079006725551009 
0.03129464737374073 
0.2436968911158693 
0.8314912813505365 
-0.08629067435932718 
-0.1786512652236985 
-0.03325417360345526 
-0.01470857141789017 
-0.3110996982450105 
0 
-0.180471219080484 
0 
-0.01764655992030009 
-0.2815844483791664 
0 
0.1293824821465593 
-0.5661620109795472 
0.4270499400182787 
1.08732076357536 
-0.7449116642647869 
0.2272012217069098 
0 
-0.08780750335180451 
-0.2800307328462434 
0.7138157965882926 
-0.2251345634801185 
0.3166479287933925 
0 
0.534180893513696 
0 
-0.3713635145497267 
0 
-0.1283455423499097 
-0.3785832531930112 
-0.2143943261282632 
0 
-0.3651248272731119 
0 
0.1951989966825609 
-0.3369986077047066 
-0.8291613075954773 
0.9369070012897706 
0 
0 
-0.467732529147551 
0.8971198212928969 
0.08226770812826653 
-0.1564769928896299 
0.2436968911158693 
-0.2320544124727093 
0.2436968911158693 
-0.3368828068537897 
1.387778780781446e-17 
-0.2251345634801185 
-0.189292625546998 
0 
0 
-0.194696365606304 
-0.2294033495427474 
0 
0.3166479287933924 
0.08226770812826653 
0 
0 
0.03834633211010384 
-0.3369986077047066 
0.108066149550081 
-0.2497243554103069 
-0.01764655992030009 
-0.06332001582091 
0 
0 
0 
-0.06543259104611165 
0.1234773073149485 
-0.04772095883205642 
-0.166526771122565 
-0.5956956738033614 
0.3166479287933925 
0.176385489575504 
-0.01764655992030009 
0 
-0.3340998165403316 
0 
-0.07219287746361303 
0.1951989966825609 
0.1951989966825609 
0.1951989966825609 
1.042048765927203 
0 
0.4105321200166978 
-0.1539739199417475 
0.8354915138960702 
0 
0.2613434510361692 
-0.02824212993013605 
-0.8419825215022004 
-0.3344321958424833 
-0.216929316561401 
0.4980164338692248 
0 
-0.6269510125143365 
0.08226770812826653 
-0.3736216785988151 
0.3166479287933925 
-0.3368828068537897 
0 
-0.1150386280343725 
-0.2030681231033346 
0 
0.09460690440476348 
0 
0.2592274567850361 
-0.5028501815120059 
0.08612915925006276 
0.2318754964301736 
0.2546187832447658 
-1.047123764304726 
-0.7511563424157046 
0 
-0.2320544124727093 
-0.1057789679122518 
0 
0.8612291501799436 
0.8612291501799436 
5.204170427930421e-18 
-0.0620571133971891 
0 
0.07784733907852709 
-1.06796930491722 
-0.5028501815120059 
-0.05122593286142162 
-0.8536393258896025 
0.06207108060619436 
0.1672917563432624 
-0.739108847782076 
-0.04772095883205642 
0 
0 
-0.6269124663543929 
0.3509158127494507 
-0.6271174265835241 
-0.6751647568456784 
-0.1827590158598772 
-0.08749699446451985 
0.267721616962024 
-2.602085213965211e-18 
-0.01764655992030009 
0 
-0.6723695198182372 
-0.3380381281187493 
-0.1376254685097245 
-0.1564769928896299 
-0.06543259104611165 
-0.6629755816784226 
-0.05122593286142161 
0 
0.7623506495653024 
-0.06543259104611165 
0 
-0.189292625546998 
1.387778780781446e-17 
1.484992331834484 
-0.6269135464434241 
-0.05122593286142162 
0.2436968911158693 
-0.1914372143851568 
-0.08780750335180451 
-0.5575028537298212 
0.09728915519108275 
0 
0 
-0.0950734314159796 
-0.1281171985642465 
0.9033125579757839 
-1.305332374359099 
-0.2160068198891461 
0.2379026927498999 
0.4270499400182787 
-0.6269806253060675 
5.551115123125783e-17 
0.2211228957565059 
0 
0.2831581756423091 
0.267721616962024 
0 
-0.06332001582091 
-0.04684202511828686 
-0.01470857141789017 
-0.1620567041697772 
-0.2216106793999698 
-0.189292625546998 
-0.0673114015403649 
-0.4339943114301406 
-0.1150386280343725 
0 
-0.8728041385350304 
0.1032727602430104 
-0.1689014176236658 
0.4659006169908424 
0.1951989966825609 
0 
-0.3112718516526461 
0 
-0.6924815952992784 
-0.2513948711790532 
0 
0 
0.267721616962024 
0 
0.5860246651729726 
0 
0.8354915138960702 
-0.1293290233898994 
-0.1892926255469979 
0.1234773073149485 
-0.04684202511828683 
-0.9566473271952667 
-0.5754773991718641 
0.1921189224156715 
-0.2320544124727093 
-0.1176754847622442 
-0.06332001582091 
0 
-0.6270386606255649 
-0.06563640671798024 
0 
0 
-0.1564769928896299 
0.3184120509475888 
1.197529464691553 
0 
0 
1.087384773930043 
-0.3141006267689256 
-0.7558329950425794 
-0.01470857141789017 
-0.04684202511828686 
-0.3344321958424833 
0 
0 
-0.2251345634801186 
0.0884236805940864 
-6.938893903907228e-18 
-0.1684946943194697 
-0.03823867345171582 
-0.1281171985642465 
0.504224036354973 
-0.138695471438548 
0.06207108060619436 
0.05906619158672882 
0.08226770812826652 
-0.04772095883205642 
0.2633054293686877 
0.03996092890170261 
0 
0 
0.002547302024466985 
0.4105321200166979 
-0.00132442775110467 
-2.775557561562891e-17 
-0.2216106793999698 
0.3336248354201851 
-0.1620567041697772 
0 
2.602085213965211e-18 
-0.2815844483791664 
-0.1933012219612567 
-0.535521896741585 
0.08226770812826653 
0.7557880786231856 
0 
0.08842368059408631 
-0.05742047200835605 
1.070111956380111 
-0.2320544124727093 
-1.094351540783435 
0.08226770812826653 
0.5860246651729726 
-0.0007417928603272993 
-0.1684946943194697 
-0.2109421334189878 
0.08226770812826653 
0 
0.3958235485988077 
-0.02843654921789263 
0.3533949747030445 
0 
0 
-0.1620567041697772 
0.08226770812826653 
-0.05742047200835602 
-0.01764655992030009 
-0.06543259104611165 
-0.2815844483791664 
0 
0.2254097589685013 
0.1951989966825609 
0.1032727602430104 
-0.0673114015403649 
-0.6270093265294632 
0 
1.695774257479413 
0 
0 
0.3166479287933925 
0.2412134981822397 
-0.252783507934674 
0.8592588176282359 
0.0299683245112905 
-0.5477523498082667 
0 
-0.05742047200835602 
0.1293824821465593 
-0.871019743636288 
1.415722050777063 
-0.1281171985642465 
0.4105321200166979 
0 
-0.4779142341633793 
-0.1880817831626897 
0.8314912813505365 
0.08226770812826653 
0 
0 
-0.3993829246629207 
0.3095465763505924 
0 
-0.4494708238768558 
1.908195823574488e-17 
0 
-0.250254702992379 
-0.1684946943194697 
-0.9060583121384863 
-0.6167554483363273 
-0.5933129013823254 
